digraph Tree {
node [shape=box, style="filled, rounded", color="black", fontname=helvetica] ;
edge [fontname=helvetica] ;
0 [label="petal length (cm) <= 4.85\ngini = 0.66\nsamples = 94\nvalue = [40, 54, 56]\nclass = virginica", fillcolor="#fcfbfe"] ;
1 [label="sepal length (cm) <= 5.15\ngini = 0.51\nsamples = 61\nvalue = [40, 52, 2]\nclass = versicolor", fillcolor="#d3f9e3"] ;
0 -> 1 [labeldistance=2.5, labelangle=45, headlabel="True"] ;
2 [label="petal length (cm) <= 2.6\ngini = 0.2\nsamples = 23\nvalue = [33, 3, 1]\nclass = setosa", fillcolor="#e89050"] ;
1 -> 2 ;
3 [label="gini = 0.0\nsamples = 20\nvalue = [33, 0, 0]\nclass = setosa", fillcolor="#e58139"] ;
2 -> 3 ;
4 [label="petal length (cm) <= 4.0\ngini = 0.38\nsamples = 3\nvalue = [0, 3, 1]\nclass = versicolor", fillcolor="#7beeab"] ;
2 -> 4 ;
5 [label="gini = 0.0\nsamples = 2\nvalue = [0, 3, 0]\nclass = versicolor", fillcolor="#39e581"] ;
4 -> 5 ;
6 [label="gini = 0.0\nsamples = 1\nvalue = [0, 0, 1]\nclass = virginica", fillcolor="#8139e5"] ;
4 -> 6 ;
7 [label="petal width (cm) <= 0.7\ngini = 0.25\nsamples = 38\nvalue = [7, 49, 1]\nclass = versicolor", fillcolor="#59e995"] ;
1 -> 7 ;
8 [label="gini = 0.0\nsamples = 5\nvalue = [7, 0, 0]\nclass = setosa", fillcolor="#e58139"] ;
7 -> 8 ;
9 [label="petal width (cm) <= 1.7\ngini = 0.04\nsamples = 33\nvalue = [0, 49, 1]\nclass = versicolor", fillcolor="#3de684"] ;
7 -> 9 ;
10 [label="gini = 0.0\nsamples = 31\nvalue = [0, 47, 0]\nclass = versicolor", fillcolor="#39e581"] ;
9 -> 10 ;
11 [label="sepal width (cm) <= 3.1\ngini = 0.44\nsamples = 2\nvalue = [0, 2, 1]\nclass = versicolor", fillcolor="#9cf2c0"] ;
9 -> 11 ;
12 [label="gini = 0.0\nsamples = 1\nvalue = [0, 0, 1]\nclass = virginica", fillcolor="#8139e5"] ;
11 -> 12 ;
13 [label="gini = 0.0\nsamples = 1\nvalue = [0, 2, 0]\nclass = versicolor", fillcolor="#39e581"] ;
11 -> 13 ;
14 [label="petal width (cm) <= 1.75\ngini = 0.07\nsamples = 33\nvalue = [0, 2, 54]\nclass = virginica", fillcolor="#8640e6"] ;
0 -> 14 [labeldistance=2.5, labelangle=-45, headlabel="False"] ;
15 [label="petal width (cm) <= 1.65\ngini = 0.5\nsamples = 4\nvalue = [0, 2, 2]\nclass = versicolor", fillcolor="#ffffff"] ;
14 -> 15 ;
16 [label="sepal width (cm) <= 3.05\ngini = 0.44\nsamples = 3\nvalue = [0, 1, 2]\nclass = virginica", fillcolor="#c09cf2"] ;
15 -> 16 ;
17 [label="gini = 0.0\nsamples = 2\nvalue = [0, 0, 2]\nclass = virginica", fillcolor="#8139e5"] ;
16 -> 17 ;
18 [label="gini = 0.0\nsamples = 1\nvalue = [0, 1, 0]\nclass = versicolor", fillcolor="#39e581"] ;
16 -> 18 ;
19 [label="gini = 0.0\nsamples = 1\nvalue = [0, 1, 0]\nclass = versicolor", fillcolor="#39e581"] ;
15 -> 19 ;
20 [label="gini = 0.0\nsamples = 29\nvalue = [0, 0, 52]\nclass = virginica", fillcolor="#8139e5"] ;
14 -> 20 ;
}